{
    "c1": {
        "bias": [
            0.01715671457350254,
            0.08110737055540085,
            0.0005974785308353603,
            0.006352042779326439,
            0.001857893425039947,
            -0.00014436960918828845
        ],
        "weight": [
            [
                0.02225586399435997,
                0.23007340729236603,
                -0.008021040819585323,
                -0.16796168684959412,
                -0.09639909118413925,
                -0.14653463661670685,
                0.05924436077475548,
                0.32579731941223145,
                -0.06544875353574753,
                -0.03729579597711563,
                0.3941425085067749,
                -0.061386577785015106,
                -0.04564054682850838,
                0.3279193937778473,
                0.3350483179092407,
                0.08534891158342361,
                0.6745661497116089,
                0.20884807407855988,
                -0.10807932913303375,
                0.40545210242271423,
                0.22817610204219818,
                0.04066260904073715,
                0.7673360705375671,
                0.388690322637558,
                -0.0919114351272583
            ],
            [
                0.25465595722198486,
                0.26979860663414,
                -0.05795268341898918,
                0.5021629333496094,
                -0.1133216917514801,
                0.0020698735024780035,
                0.21275749802589417,
                -0.1413629651069641,
                -0.04498130828142166,
                0.2797481119632721,
                0.16319358348846436,
                -0.04189376160502434,
                -0.016166379675269127,
                -0.04709098860621452,
                -0.19132480025291443,
                0.5064944624900818,
                -0.018133537843823433,
                0.01898319646716118,
                0.012045514769852161,
                0.4470755159854889,
                -0.12074890732765198,
                0.9037719368934631,
                0.2778312861919403,
                -0.028628583997488022,
                0.31624773144721985
            ],
            [
                0.1987851858139038,
                0.07183483988046646,
                0.636395275592804,
                0.28890880942344666,
                -0.04752394184470177,
                0.25247541069984436,
                0.03121917136013508,
                0.16888615489006042,
                0.46799856424331665,
                -0.06457412242889404,
                0.07447344809770584,
                -0.2761876583099365,
                0.048159994184970856,
                0.22780002653598785,
                0.14856907725334167,
                0.07696869969367981,
                0.039178553968667984,
                0.039170801639556885,
                0.09940490871667862,
                0.1671062856912613,
                0.5843573212623596,
                -0.009246354922652245,
                0.10341420769691467,
                -0.24392135441303253,
                0.2120741605758667
            ],
            [
                0.31759345531463623,
                0.706613302230835,
                0.3771594166755676,
                0.12068364769220352,
                -0.041274406015872955,
                0.3376038372516632,
                0.33907148241996765,
                0.3313610851764679,
                0.13865020871162415,
                -0.14522045850753784,
                -0.035043321549892426,
                -0.09533728659152985,
                0.15919627249240875,
                0.10525565594434738,
                0.09199880808591843,
                -0.09879167377948761,
                -0.20245736837387085,
                -0.14726197719573975,
                0.21182864904403687,
                0.27134668827056885,
                0.0152357192710042,
                -0.17044658958911896,
                -0.07286195456981659,
                0.13849753141403198,
                0.24604925513267517
            ],
            [
                0.38490864634513855,
                0.04956479370594025,
                0.18467892706394196,
                -0.2509414553642273,
                0.1517418920993805,
                0.18039964139461517,
                0.1037389263510704,
                0.19094878435134888,
                0.009951259940862656,
                -0.20012669265270233,
                0.27208778262138367,
                0.3984712064266205,
                -0.04131573438644409,
                0.06728855520486832,
                0.061356838792562485,
                -0.10308019071817398,
                0.1221441999077797,
                0.20083941519260406,
                -0.034916989505290985,
                -0.09464907646179199,
                0.09179897606372833,
                -0.31200554966926575,
                -0.07465700805187225,
                0.20631834864616394,
                -0.08630906045436859
            ],
            [
                -0.15098387002944946,
                0.07099702209234238,
                -0.10768123716115952,
                0.246038019657135,
                0.09071491658687592,
                -0.017269674688577652,
                -0.046778712421655655,
                -0.16015148162841797,
                -0.2528281509876251,
                0.011025290936231613,
                0.24460186064243317,
                -0.04274171590805054,
                0.16665813326835632,
                -0.15167127549648285,
                -0.2585611045360565,
                -0.005743285641074181,
                0.30090591311454773,
                -0.2078237682580948,
                0.1419091820716858,
                0.08482088148593903,
                0.006229712627828121,
                -0.04672641307115555,
                0.25595906376838684,
                -0.19981585443019867,
                0.054502934217453
            ]
        ]
    },
    "c2": {
        "bias": [
            0.05591118335723877,
            0.000805472896900028,
            -0.006774342153221369,
            -0.00578087056055665,
            0.0273998212069273,
            0.02681327983736992,
            -0.007749707903712988,
            -0.024897243827581406,
            0.02482747845351696,
            -0.006171340122818947,
            0.033086396753787994,
            -0.05117436870932579,
            -0.014024438336491585,
            0.017495138570666313,
            -0.03923855349421501,
            0.022772490978240967
        ],
        "weight": [
            [
                -0.002159180585294962,
                -0.09607668220996857,
                0.05626765266060829,
                -0.017029831185936928,
                0.008007192052900791,
                -0.10147686302661896,
                0.10294556617736816,
                -0.03527813404798508,
                0.08088987320661545,
                -0.04896900802850723,
                0.018038462847471237,
                0.0898384302854538,
                -0.07198426872491837,
                -0.0998077318072319,
                0.05957229062914848,
                -0.007265307940542698,
                -0.1346610188484192,
                -0.10878857225179672,
                0.04907113313674927,
                -0.022516019642353058,
                0.06158095970749855,
                0.016089731827378273,
                0.06339270621538162,
                -0.008366149850189686,
                -0.06416001170873642,
                0.06224009394645691,
                0.08776820451021194,
                0.040062934160232544,
                0.08473683893680573,
                0.061282552778720856,
                -0.014450643211603165,
                -0.04644015431404114,
                0.05355367064476013,
                0.10154006630182266,
                0.0792788565158844,
                -0.07446084171533585,
                -0.01756199449300766,
                -0.07901832461357117,
                0.04713531211018562,
                -0.006198350340127945,
                0.10954192280769348,
                -0.01733027957379818,
                -0.07935173064470291,
                -0.09639543294906616,
                0.06066779047250748,
                0.03322495147585869,
                -0.03171425685286522,
                -0.0517122708261013,
                0.09043852239847183,
                0.03511178120970726,
                0.018103966489434242,
                -0.016465622931718826,
                -0.010043172165751457,
                -0.025404345244169235,
                0.045930374413728714,
                -0.04236987605690956,
                -0.04384857043623924,
                -0.09436599165201187,
                0.020037775859236717,
                0.10889799147844315,
                -0.05758621171116829,
                -0.01428212970495224,
                -0.030056441202759743,
                -0.09013776481151581,
                0.24338068068027496,
                -0.05415863171219826,
                0.001019652234390378,
                0.10972291976213455,
                0.11941791325807571,
                -0.007648583501577377,
                0.0032019668724387884,
                0.017184976488351822,
                0.015211337246000767,
                0.038336481899023056,
                0.007153099402785301,
                -0.0017171009676530957,
                -0.11639384180307388,
                0.008368530310690403,
                -0.08480515331029892,
                0.08193250745534897,
                0.15949632227420807,
                -0.008094912394881248,
                0.07490427047014236,
                -0.005340438801795244,
                0.0236496701836586,
                -0.04835399612784386,
                -0.034055475145578384,
                -0.014171668328344822,
                0.01077358704060316,
                0.0667022168636322,
                0.0837239921092987,
                -0.02432701177895069,
                0.08433948457241058,
                -0.09666651487350464,
                -0.08885260671377182,
                0.011247417889535427,
                -0.07972904294729233,
                -0.03399693965911865,
                0.05217934772372246,
                0.04651185870170593,
                -0.030812840908765793,
                0.10148105025291443,
                0.05159144103527069,
                0.07234185934066772,
                0.09494511038064957,
                0.04713895916938782,
                -0.013379866257309914,
                0.0516548715531826,
                0.08155491948127747,
                0.09999274462461472,
                0.028905117884278297,
                0.06163294240832329,
                -0.06654782593250275,
                -0.10100273787975311,
                0.06522052735090256,
                0.06508024781942368,
                0.09529577195644379,
                -0.0924985259771347,
                0.10006846487522125,
                -0.04401547089219093,
                -0.04977506026625633,
                0.05928770452737808,
                -0.059917401522397995,
                0.02486816793680191,
                0.053656287491321564,
                -0.015099623240530491,
                0.11193471401929855,
                0.02866428904235363,
                0.07931321114301682,
                -0.10878806561231613,
                0.02673187293112278,
                -0.09275658428668976,
                0.07342230528593063,
                0.11504647135734558,
                -0.09045397490262985,
                0.0701296329498291,
                -0.08547170460224152,
                0.021624471992254257,
                -0.11050087213516235,
                0.04003669321537018,
                -0.06406638026237488,
                -0.02284872718155384,
                -0.0503859706223011,
                -0.10645909607410431,
                -0.09356293082237244,
                0.12518136203289032,
                0.10250745713710785,
                0.07938500493764877,
                -0.024326767772436142,
                0.10981228947639465
            ],
            [
                0.145919069647789,
                -0.0152779221534729,
                -0.11780957132577896,
                0.0105739776045084,
                -0.07727199792861938,
                0.03852339833974838,
                -0.1365090161561966,
                -0.002937367418780923,
                -0.11648625880479813,
                0.04038889706134796,
                0.15036435425281525,
                -0.16036446392536163,
                -0.02743011899292469,
                0.0962095633149147,
                0.041406165808439255,
                -0.023941127583384514,
                0.04941539466381073,
                -0.058988701552152634,
                -0.037593673914670944,
                -0.10972469300031662,
                -0.014658644795417786,
                0.03155471011996269,
                -0.11462195217609406,
                0.06792174279689789,
                0.011686661280691624,
                0.03499754145741463,
                0.09904922544956207,
                -0.008808416314423084,
                -0.020273758098483086,
                -0.07644235342741013,
                -0.07427463680505753,
                -0.0998462364077568,
                0.08329922705888748,
                -0.022142963483929634,
                0.020464984700083733,
                0.08530796319246292,
                -0.025238100439310074,
                0.026653185486793518,
                -0.11361728608608246,
                -0.030303124338388443,
                -0.09850095957517624,
                -0.08583901822566986,
                -0.057342614978551865,
                0.02095937542617321,
                -0.07165957987308502,
                -0.022486843168735504,
                -0.053179968148469925,
                -0.09577518701553345,
                0.09835057705640793,
                0.07797698676586151,
                0.05506854131817818,
                -0.07208453863859177,
                -0.0860145092010498,
                -0.10145266354084015,
                0.06103507801890373,
                0.04515187069773674,
                0.051669586449861526,
                -0.03333109989762306,
                -0.02045290917158127,
                0.01222456619143486,
                0.018454749137163162,
                0.09894470125436783,
                0.10187380760908127,
                -0.04071023315191269,
                -0.02247580699622631,
                -0.07272940129041672,
                -0.03161074221134186,
                0.028326470404863358,
                0.005358891561627388,
                0.04074690490961075,
                -0.11638665944337845,
                -0.10015840083360672,
                -0.029604751616716385,
                0.041731543838977814,
                -0.10520957410335541,
                0.061902690678834915,
                -0.024187015369534492,
                -0.09848847985267639,
                -0.07370061427354813,
                0.013963981531560421,
                0.0804784968495369,
                -0.041747137904167175,
                -0.022377511486411095,
                -0.010500961914658546,
                -0.04369395226240158,
                -0.05399240553379059,
                -0.06531190872192383,
                0.08778019994497299,
                -0.013419554568827152,
                0.04904715716838837,
                -0.15136954188346863,
                0.11085888743400574,
                0.022955050691962242,
                -0.03211606666445732,
                0.1055338904261589,
                -0.01003117673099041,
                0.11527242511510849,
                0.1119302287697792,
                0.03432662412524223,
                0.0976208969950676,
                0.05995560809969902,
                -0.08552291244268417,
                -0.05430839955806732,
                -0.0031150085851550102,
                0.02654304914176464,
                -0.11769791692495346,
                -0.055552903562784195,
                -0.20354850590229034,
                -0.03551037237048149,
                -0.047454025596380234,
                0.06013408675789833,
                0.029726872220635414,
                0.08540812879800797,
                0.03705599159002304,
                -0.07383036613464355,
                -0.15380200743675232,
                0.06550823897123337,
                -0.06760198622941971,
                -0.295510470867157,
                -0.057864002883434296,
                0.0750674456357956,
                -0.14987404644489288,
                -0.025465112179517746,
                -0.1433667093515396,
                0.03867727145552635,
                -0.10672961920499802,
                -0.0013250012416392565,
                0.06366316229104996,
                -0.08307982236146927,
                0.1177278608083725,
                -0.021417202427983284,
                -0.0062143225222826,
                -0.052395839244127274,
                -0.007970216684043407,
                -0.16422046720981598,
                -0.045141130685806274,
                0.053299035876989365,
                -0.10207375138998032,
                0.09737491607666016,
                -0.030276210978627205,
                0.04863205552101135,
                0.07410551607608795,
                0.04291997477412224,
                -0.05890676751732826,
                -0.039945367723703384,
                0.013305287808179855,
                0.08815466612577438,
                0.03029712662100792,
                0.01709727942943573,
                -0.01218236330896616
            ],
            [
                0.08177438378334045,
                0.03362235426902771,
                -0.05062299594283104,
                0.09131494909524918,
                0.09287898987531662,
                0.0015958691947162151,
                0.031922172755002975,
                -0.05883428826928139,
                0.008599178865551949,
                0.00406022509559989,
                0.03552636504173279,
                0.02622293122112751,
                -0.07138978689908981,
                -0.11947473138570786,
                0.016078006476163864,
                -0.09205740690231323,
                -0.1772947758436203,
                -0.07851214706897736,
                0.02449428103864193,
                0.09982803463935852,
                -0.09615342319011688,
                -0.13895809650421143,
                0.10654161125421524,
                -0.06361933052539825,
                0.1423203945159912,
                -0.10469129681587219,
                -0.03707753121852875,
                -0.051809899508953094,
                -0.03614867478609085,
                0.027969779446721077,
                -0.08683697879314423,
                -0.05580156669020653,
                0.11823657900094986,
                0.07707976549863815,
                -0.041347067803144455,
                -0.009169773198664188,
                -0.05616015940904617,
                -0.010004248470067978,
                0.09704328328371048,
                -0.09718368202447891,
                0.0012030364014208317,
                0.12925824522972107,
                0.08379490673542023,
                0.030300602316856384,
                -0.0008133197552524507,
                -0.0403810478746891,
                -0.09351930767297745,
                0.06321611255407333,
                0.030521975830197334,
                0.14342421293258667,
                -0.02450510300695896,
                0.005456321407109499,
                -0.19229337573051453,
                -0.07661686092615128,
                0.19808275997638702,
                0.057691752910614014,
                0.12113986164331436,
                -0.11686360090970993,
                0.07465200126171112,
                0.08379858732223511,
                -0.02354743331670761,
                -0.05964939668774605,
                0.02148618921637535,
                -0.0078043462708592415,
                0.10168728977441788,
                -0.018818452954292297,
                0.09952423721551895,
                -0.2392309159040451,
                -0.025488201528787613,
                -0.009066321887075901,
                0.00785032007843256,
                -0.03226965293288231,
                0.1125066876411438,
                -0.10844185203313828,
                0.05564030632376671,
                0.06128528714179993,
                0.10350721329450607,
                -0.10248447209596634,
                -0.04664634168148041,
                -0.0501968152821064,
                0.14714521169662476,
                -0.020911412313580513,
                -0.024866437539458275,
                -0.006454352755099535,
                0.0643274262547493,
                0.028721537441015244,
                0.0937451720237732,
                0.09472466260194778,
                -0.085142120718956,
                -0.08441351354122162,
                0.07504004240036011,
                0.06124967709183693,
                -0.10354823619127274,
                -0.02321469970047474,
                0.1007845476269722,
                0.02787650190293789,
                -0.049520641565322876,
                -0.06830178201198578,
                -0.06610884517431259,
                -0.029185615479946136,
                -0.08860749751329422,
                -0.07248734682798386,
                0.08170200139284134,
                0.026316719129681587,
                -0.008074727840721607,
                -0.05218510702252388,
                0.1377301961183548,
                0.04796420782804489,
                -0.08291896432638168,
                -0.007832438684999943,
                -0.06639507412910461,
                0.05000626668334007,
                -0.05675344541668892,
                -0.07151854783296585,
                -0.06812300533056259,
                0.06524182111024857,
                0.018213286995887756,
                -0.03812965005636215,
                0.0365845188498497,
                -0.041820742189884186,
                0.014749046415090561,
                -0.09219016879796982,
                -0.04917886480689049,
                0.01457323506474495,
                0.07516884058713913,
                0.11051640659570694,
                -0.019854439422488213,
                -0.07441991567611694,
                0.21549829840660095,
                -0.02040752023458481,
                -0.06426234543323517,
                0.001426640897989273,
                0.12746796011924744,
                -0.06290097534656525,
                -0.0009709549485705793,
                0.051090825349092484,
                0.14695656299591064,
                0.056296803057193756,
                0.01786220818758011,
                0.04413557052612305,
                -0.015045540407299995,
                -0.09276700019836426,
                -0.030949492007493973,
                0.05414559319615364,
                -0.018490061163902283,
                0.13367892801761627,
                -0.035707440227270126,
                -0.035030655562877655,
                0.10521522164344788,
                -0.09770181775093079
            ],
            [
                0.2249881476163864,
                0.017761100083589554,
                0.0074142636731266975,
                -0.1266845017671585,
                0.15075340867042542,
                -0.014378378167748451,
                0.21266674995422363,
                0.07547111064195633,
                -0.02900644764304161,
                0.04497557505965233,
                0.3229934275150299,
                0.11825451999902725,
                0.11806568503379822,
                -0.05756663531064987,
                0.16414646804332733,
                -0.02074248343706131,
                0.10064611583948135,
                -0.08273468166589737,
                -0.054858408868312836,
                -0.11151883751153946,
                0.05020490288734436,
                -0.07665340602397919,
                -0.018771620467305183,
                0.05975649505853653,
                -0.005268894135951996,
                0.014008836820721626,
                0.143583282828331,
                -0.05191049724817276,
                0.05030011385679245,
                -0.07312876731157303,
                -0.04722002148628235,
                -0.000408086518291384,
                -0.07535215467214584,
                -0.0027486917097121477,
                -0.039567090570926666,
                0.008692997507750988,
                -0.03728397190570831,
                -0.040423713624477386,
                0.013259596191346645,
                -0.059481121599674225,
                0.01068459264934063,
                -0.006915506441146135,
                -0.060783348977565765,
                0.08462140709161758,
                -0.09144902229309082,
                0.0775899738073349,
                -0.13913634419441223,
                -0.0772816389799118,
                0.05353013798594475,
                0.044379327446222305,
                -0.031199418008327484,
                0.054021988064050674,
                0.09862448275089264,
                0.010838022455573082,
                0.020708126947283745,
                -0.0577833317220211,
                0.0656718909740448,
                -0.10478305071592331,
                0.05260019749403,
                0.0872274786233902,
                0.008750434964895248,
                -0.11719799041748047,
                0.22754722833633423,
                0.09550706297159195,
                0.06455007195472717,
                0.1005900651216507,
                0.013477588072419167,
                -0.0028148589190095663,
                0.005427363328635693,
                -0.06753580272197723,
                -0.06726105511188507,
                -0.023085951805114746,
                0.03765017166733742,
                -0.05311187729239464,
                -0.00803279783576727,
                -0.048093173652887344,
                -0.05600705370306969,
                0.002150793094187975,
                0.03976853936910629,
                0.009306127205491066,
                0.05120748654007912,
                0.04071561619639397,
                -0.09924107789993286,
                -0.04091878980398178,
                0.059572961181402206,
                -0.07478004693984985,
                -0.03838559240102768,
                0.06368297338485718,
                0.02824203483760357,
                -0.09813094139099121,
                -0.0207013301551342,
                -0.019468272104859352,
                -0.02225556969642639,
                0.09896861016750336,
                0.2421097308397293,
                -0.023929467424750328,
                -0.07399966567754745,
                0.08712305128574371,
                0.07444606721401215,
                0.10584264993667603,
                0.23301851749420166,
                0.09650633484125137,
                -0.04048153758049011,
                0.07568173110485077,
                0.08804290741682053,
                -0.04881738871335983,
                0.04176674783229828,
                0.0154854292050004,
                0.017645161598920822,
                -0.07012036442756653,
                0.1717551201581955,
                0.06490674614906311,
                0.032989516854286194,
                -0.04301314428448677,
                -0.02813953347504139,
                -0.08519601821899414,
                0.08448910713195801,
                -0.07724503427743912,
                0.05386868864297867,
                0.07014993578195572,
                -0.040737248957157135,
                -0.09692677110433578,
                -0.028495559468865395,
                -0.12881918251514435,
                -0.013271673582494259,
                0.09371837973594666,
                -0.10775366425514221,
                -0.012094800360500813,
                0.03370115906000137,
                -0.09407800436019897,
                0.0712210014462471,
                0.02227947860956192,
                0.07043453305959702,
                0.09837812930345535,
                0.08896568417549133,
                0.045794542878866196,
                -0.050796087831258774,
                0.043056320399045944,
                0.0017284974455833435,
                -0.0844494104385376,
                -0.07810408622026443,
                0.10368698835372925,
                -0.014669248834252357,
                0.01197743695229292,
                0.013640720397233963,
                0.011145940981805325,
                0.1211342141032219,
                -0.02848813496530056,
                0.14874185621738434,
                0.08052483201026917
            ],
            [
                -0.04957655072212219,
                0.00014419462240766734,
                -0.08850996941328049,
                0.013441668823361397,
                0.01300154160708189,
                -0.010770129039883614,
                0.12107913941144943,
                -0.010721305385231972,
                0.05667489394545555,
                0.02284625917673111,
                0.02604096382856369,
                0.07552728056907654,
                -0.11227484792470932,
                -0.059416964650154114,
                0.04948931559920311,
                0.08688340336084366,
                0.002613121410831809,
                0.05885133892297745,
                -0.00560865318402648,
                0.06163393333554268,
                -0.14533251523971558,
                0.10125862061977386,
                -0.12905016541481018,
                0.0014301210176199675,
                0.01767318695783615,
                0.12424664199352264,
                0.10613524168729782,
                -0.0010895859450101852,
                -0.15847265720367432,
                -0.04054182767868042,
                -0.04092239588499069,
                0.058332812041044235,
                -0.061764705926179886,
                0.08162711560726166,
                -0.05492844060063362,
                0.03549699857831001,
                -0.07403793931007385,
                -0.06776225566864014,
                -0.06095895543694496,
                0.01893308013677597,
                0.14431153237819672,
                -0.03286445885896683,
                -0.05897441878914833,
                -0.12305977940559387,
                -0.005983565468341112,
                0.0965694785118103,
                0.07178109139204025,
                0.07972242683172226,
                -0.13487111032009125,
                -0.1783362329006195,
                -0.018716352060437202,
                -0.058217450976371765,
                -0.14768755435943604,
                0.023326141759753227,
                -0.09195993840694427,
                -0.0888703390955925,
                -0.013010198250412941,
                0.053636763244867325,
                0.0673174038529396,
                -0.044335898011922836,
                0.03585073724389076,
                0.07070164382457733,
                0.07939117401838303,
                -0.025409184396266937,
                0.06277722120285034,
                -0.06291932612657547,
                -0.05597156286239624,
                -0.035365499556064606,
                -0.009810266084969044,
                0.043953701853752136,
                0.02353316731750965,
                -0.06776700913906097,
                -0.057736217975616455,
                -0.004485107026994228,
                -0.018649347126483917,
                -0.00028988797566853464,
                -0.08147464692592621,
                0.010146678425371647,
                -0.06933503597974777,
                -0.009022421203553677,
                0.012696930207312107,
                -0.10324840247631073,
                0.05280172452330589,
                0.008135511539876461,
                0.0077841635793447495,
                -0.0668223574757576,
                0.041404955089092255,
                -0.02168131433427334,
                0.04347485303878784,
                0.09627633541822433,
                0.0055997432209551334,
                0.01132670696824789,
                -0.034206535667181015,
                -0.002261771820485592,
                0.11004380881786346,
                0.10242137312889099,
                -0.07460139691829681,
                -0.15791629254817963,
                -0.09985895454883575,
                -0.025901295244693756,
                -0.20015893876552582,
                0.02396935038268566,
                0.0827467292547226,
                -0.03700484707951546,
                -0.12716513872146606,
                -0.0036738994531333447,
                0.08157569915056229,
                -0.017728392034769058,
                0.06858600676059723,
                0.050139181315898895,
                0.07008016109466553,
                0.12097359448671341,
                -0.1398603767156601,
                -0.012608923017978668,
                0.0859210416674614,
                -0.018322044983506203,
                -0.03144233673810959,
                0.1084962710738182,
                -0.1156645119190216,
                0.008471434004604816,
                -0.1459583342075348,
                0.15069928765296936,
                0.10117026418447495,
                -0.08071446418762207,
                -0.005629786290228367,
                0.18616342544555664,
                -0.14475661516189575,
                0.10210433602333069,
                0.012608325108885765,
                0.09323957562446594,
                -0.02506760135293007,
                0.043641358613967896,
                0.15907514095306396,
                -0.128353089094162,
                -0.044109031558036804,
                -0.016205500811338425,
                -0.26075029373168945,
                0.054869070649147034,
                0.25850313901901245,
                0.05328606814146042,
                0.006781629752367735,
                0.16359086334705353,
                0.056218039244413376,
                0.2487926483154297,
                -0.04981200397014618,
                -0.014592250809073448,
                0.08272545039653778,
                0.006377026438713074,
                -0.28437817096710205,
                0.13658368587493896
            ],
            [
                -0.13355731964111328,
                -0.09392558038234711,
                -0.163508802652359,
                0.09524460136890411,
                -0.034174226224422455,
                0.09100326895713806,
                0.04467887431383133,
                0.042517293244600296,
                -0.04402610659599304,
                0.04313463345170021,
                -0.1067432314157486,
                0.039975181221961975,
                -0.018064197152853012,
                0.06295572966337204,
                -0.11009863018989563,
                0.08784667402505875,
                0.03990725800395012,
                -0.11730150133371353,
                -0.0014517961535602808,
                -0.08188999444246292,
                -0.10857895761728287,
                0.004893364384770393,
                -0.08956620842218399,
                -0.024063274264335632,
                -0.0750880092382431,
                0.030302077531814575,
                -0.10827555507421494,
                0.040813155472278595,
                -0.016330033540725708,
                -0.10284767299890518,
                0.0907607153058052,
                -0.07339625805616379,
                0.04156898334622383,
                0.029169773682951927,
                0.07323195785284042,
                0.05003441497683525,
                -0.0085741663351655,
                0.04826992377638817,
                0.033771563321352005,
                0.09251885861158371,
                0.1105247437953949,
                -0.06791399419307709,
                -0.12815822660923004,
                0.018972676247358322,
                -0.00525171821936965,
                -0.08420614153146744,
                -0.17936737835407257,
                0.058409471064805984,
                -0.03731224685907364,
                0.02813323400914669,
                0.09818706661462784,
                -0.02652069553732872,
                0.11116939783096313,
                -0.0779540091753006,
                0.16657665371894836,
                0.10220964252948761,
                -0.07244917005300522,
                0.023613210767507553,
                0.11722210049629211,
                0.06442349404096603,
                -0.01902405545115471,
                0.04141918942332268,
                0.11099036782979965,
                -0.01836501434445381,
                -0.07589726895093918,
                -0.10908491909503937,
                -0.03989795967936516,
                0.05649110674858093,
                0.025116343051195145,
                -0.009742028079926968,
                0.13288868963718414,
                0.10081053525209427,
                0.01704290695488453,
                -0.01347312517464161,
                0.15092875063419342,
                0.031603217124938965,
                -0.0767473578453064,
                0.05306131765246391,
                0.08747769892215729,
                0.012479651719331741,
                -0.09835124760866165,
                0.12988145649433136,
                -0.12131772190332413,
                -0.06468143314123154,
                0.21806927025318146,
                -0.10197534412145615,
                0.09537012130022049,
                0.07317578792572021,
                0.15807124972343445,
                0.07613535970449448,
                0.0025525917299091816,
                0.10101819783449173,
                -0.004884707275778055,
                -0.060172609984874725,
                0.34128499031066895,
                0.15042293071746826,
                -0.09257163107395172,
                -0.03730805963277817,
                0.005207875743508339,
                0.08781134337186813,
                0.046854931861162186,
                0.09074198454618454,
                0.08511804044246674,
                3.667682904051617e-05,
                -0.07893865555524826,
                0.0976717472076416,
                -0.002378462813794613,
                0.08040191978216171,
                -0.0033503638114780188,
                -0.06720656156539917,
                0.12046801298856735,
                -0.02801274135708809,
                -0.0034964163787662983,
                -0.11407069861888885,
                -0.07308734953403473,
                -0.05795271694660187,
                -0.009485985152423382,
                0.06007727235555649,
                -0.00112821813672781,
                0.04392987862229347,
                0.06195373833179474,
                0.09683118015527725,
                -0.012506422586739063,
                0.10259230434894562,
                -0.07288003712892532,
                -0.0685184895992279,
                0.07385843247175217,
                -0.05550795793533325,
                0.049897775053977966,
                0.0338943675160408,
                0.06884489208459854,
                -0.13123579323291779,
                0.030605465173721313,
                0.08639601618051529,
                -0.15207163989543915,
                0.0025255458895117044,
                0.20122286677360535,
                0.07735422253608704,
                -0.1744077056646347,
                0.05658063665032387,
                0.0019334559328854084,
                0.05900620296597481,
                -0.08806246519088745,
                0.09771052747964859,
                -0.05037051811814308,
                -0.04893389344215393,
                0.11664284765720367,
                0.0029371283017098904,
                0.09575492888689041,
                -0.03374253585934639
            ],
            [
                0.07585643231868744,
                0.0580936074256897,
                -0.07011739164590836,
                0.04308737441897392,
                0.2024262398481369,
                0.08781226724386215,
                -0.08273835480213165,
                -0.037919774651527405,
                0.1237528994679451,
                0.07513226568698883,
                0.02464728243649006,
                0.08146997541189194,
                0.1215982437133789,
                0.08778492361307144,
                -0.10635775327682495,
                0.07652129977941513,
                0.07751575112342834,
                0.10752037912607193,
                -0.09374803304672241,
                -0.03287872299551964,
                -0.05858790874481201,
                -0.029148738831281662,
                -0.04704469442367554,
                -0.017410337924957275,
                -0.0024422737769782543,
                -0.014327112585306168,
                0.11703407764434814,
                -0.0386771522462368,
                0.14179062843322754,
                -0.25329089164733887,
                0.038904834538698196,
                -0.047973960638046265,
                0.09710410982370377,
                0.024851825088262558,
                0.026777485385537148,
                0.02878522127866745,
                0.16488339006900787,
                0.04876584932208061,
                0.052749935537576675,
                0.010017764754593372,
                0.1965171843767166,
                0.14695025980472565,
                -0.008455001749098301,
                0.1489776223897934,
                -0.006096165161579847,
                -0.13862407207489014,
                0.04344722256064415,
                -0.09357336163520813,
                0.06094798818230629,
                -0.04456757754087448,
                0.054763853549957275,
                0.0367671474814415,
                0.14921917021274567,
                -0.004755611065775156,
                0.08053616434335709,
                0.05127875879406929,
                0.06945125758647919,
                -0.0036714307498186827,
                0.03869929909706116,
                0.06381624191999435,
                0.058486007153987885,
                0.020756730809807777,
                -0.00882855523377657,
                0.07659361511468887,
                -0.06640209257602692,
                -0.015861952677369118,
                -0.010377367027103901,
                -0.07508040219545364,
                -0.0007213260978460312,
                -0.06771018356084824,
                -0.05955065041780472,
                0.07536289840936661,
                0.01158794667571783,
                -0.09430352598428726,
                -0.039215706288814545,
                -0.025985822081565857,
                -0.1152268722653389,
                0.035569023340940475,
                0.008491970598697662,
                0.0235869400203228,
                0.04988422617316246,
                0.1145709976553917,
                0.046867143362760544,
                -0.011401052586734295,
                -0.10823861509561539,
                -0.0986647680401802,
                -0.009909609332680702,
                -0.011881691403687,
                -0.06471461057662964,
                -0.08841954916715622,
                -0.0243523046374321,
                -0.040578365325927734,
                0.22973406314849854,
                0.09795165061950684,
                -0.014618690125644207,
                0.06229572370648384,
                -0.06253471225500107,
                -0.06999107450246811,
                -0.05304146185517311,
                0.015504724346101284,
                0.048251762986183167,
                -0.13248303532600403,
                -0.03779996186494827,
                0.03610837459564209,
                -0.034552257508039474,
                -0.013672507368028164,
                -0.08778659254312515,
                0.0893232449889183,
                0.05868176370859146,
                0.009854639880359173,
                0.04041875898838043,
                -0.03563884273171425,
                -0.1499035358428955,
                -0.08720210939645767,
                -0.12221585959196091,
                -0.15353742241859436,
                -0.014191380701959133,
                -0.10670112818479538,
                0.0015835321974009275,
                -0.008330929093062878,
                -0.00538790225982666,
                -0.07677952945232391,
                -0.09295985102653503,
                0.13052275776863098,
                0.17819981276988983,
                0.1969422996044159,
                0.08616171032190323,
                -0.05352453142404556,
                -0.1724594533443451,
                0.2210969179868698,
                -0.1533988118171692,
                0.07414935529232025,
                -0.13280266523361206,
                -0.019893847405910492,
                0.06041746586561203,
                0.05634448304772377,
                0.10358618944883347,
                -0.07547994703054428,
                0.02633455954492092,
                -0.08530130982398987,
                0.02239079400897026,
                0.10745162516832352,
                -0.015191259793937206,
                -0.011334420181810856,
                0.041943665593862534,
                -0.07320395112037659,
                -0.11572202295064926,
                -0.01735856384038925,
                -0.04800969362258911,
                -0.04130548983812332
            ],
            [
                0.008536916226148605,
                -0.09888819605112076,
                0.07295609265565872,
                -0.08463611453771591,
                0.0782582089304924,
                -0.06931717693805695,
                -0.04039189964532852,
                -0.04245349019765854,
                0.035191744565963745,
                0.06433429569005966,
                0.050181031227111816,
                -0.016442211344838142,
                -0.07520686089992523,
                0.03649437800049782,
                -0.05308331176638603,
                0.040688656270504,
                -0.04304471239447594,
                0.07448314130306244,
                -0.046786218881607056,
                -0.08702393621206284,
                -0.02861773408949375,
                -0.025913842022418976,
                -0.05655931681394577,
                0.005578086245805025,
                -0.06033835560083389,
                -0.07508847117424011,
                -0.029704829677939415,
                0.0012482644524425268,
                -0.0625402107834816,
                0.14162176847457886,
                -0.13896024227142334,
                -0.0006054213154129684,
                0.041563406586647034,
                -0.009016877971589565,
                -0.15205951035022736,
                -0.005286134779453278,
                0.04716702923178673,
                -0.03513488546013832,
                -0.0927843227982521,
                -0.0072219702415168285,
                -0.011369097046554089,
                -0.04901805520057678,
                0.00869608111679554,
                -0.06138641759753227,
                -0.06560321152210236,
                0.09301885962486267,
                -0.08838261663913727,
                -0.07828038930892944,
                -0.09721871465444565,
                0.08361097425222397,
                -0.11967319995164871,
                -0.023624420166015625,
                -0.026202796027064323,
                0.012405899353325367,
                -0.0848144143819809,
                -0.05627112090587616,
                -0.02833745814859867,
                0.007041997276246548,
                -0.02589409425854683,
                -0.022474436089396477,
                0.049056246876716614,
                -0.046131834387779236,
                0.040622081607580185,
                -0.0010619000531733036,
                0.05614462494850159,
                -0.042253702878952026,
                0.04578647017478943,
                -0.10219281166791916,
                0.06029324606060982,
                0.16547635197639465,
                -0.051948338747024536,
                0.27749136090278625,
                0.1083906814455986,
                -0.052821625024080276,
                -0.30869346857070923,
                0.14919035136699677,
                -0.10778767615556717,
                0.14538511633872986,
                -0.06012484431266785,
                -0.16308079659938812,
                0.0025333852972835302,
                0.020222622901201248,
                -0.22873938083648682,
                -0.07345730811357498,
                0.039750635623931885,
                -0.04206208512187004,
                0.036904025822877884,
                0.06228436902165413,
                -0.08771727979183197,
                0.031887322664260864,
                -0.10548385232686996,
                -0.03527824580669403,
                0.012491940520703793,
                0.05496978014707565,
                -0.09712868183851242,
                -0.10050144046545029,
                -0.04310343414545059,
                -0.005796010605990887,
                -0.02974492311477661,
                -0.08427221328020096,
                -0.032931238412857056,
                -0.03787581995129585,
                -0.05741213634610176,
                0.0013707728357985616,
                -0.03837909176945686,
                0.040415216237306595,
                -0.10106388479471207,
                0.05393682420253754,
                0.0803198292851448,
                -0.08957333117723465,
                0.039417851716279984,
                -0.004576214589178562,
                -0.05732586979866028,
                -0.0814908817410469,
                -0.08773529529571533,
                -0.05664004385471344,
                0.05464411899447441,
                -0.08926388621330261,
                -0.05381651967763901,
                -0.036164455115795135,
                -0.013214319944381714,
                -0.008745375089347363,
                -0.06157854199409485,
                0.2364746332168579,
                0.015787731856107712,
                -0.01801733300089836,
                0.031070197001099586,
                0.03143665939569473,
                -0.07967507094144821,
                0.062438543885946274,
                -0.1769445240497589,
                0.13373598456382751,
                -0.11003979295492172,
                -0.13025137782096863,
                -0.029621237888932228,
                -0.01680818572640419,
                0.09522143751382828,
                -0.09685823321342468,
                -0.08585049957036972,
                -0.013837641105055809,
                -0.11563120782375336,
                -0.023633066564798355,
                0.026855014264583588,
                0.12372799217700958,
                -0.05597090348601341,
                -0.05626723915338516,
                0.13741284608840942,
                -0.08897996693849564,
                -0.07088090479373932,
                0.0679648369550705
            ],
            [
                -0.008205879479646683,
                -0.044352587312459946,
                -0.1664062738418579,
                -0.07636962085962296,
                0.07070880383253098,
                -0.023375611752271652,
                0.024893203750252724,
                -0.005941669922322035,
                0.005936674773693085,
                0.13754384219646454,
                0.018070120364427567,
                0.08964794129133224,
                0.0016840577591210604,
                -0.1318846046924591,
                0.10007090866565704,
                0.1198192611336708,
                -0.3528647720813751,
                0.1631716638803482,
                0.15721245110034943,
                -0.009735358878970146,
                -0.04699745774269104,
                0.1649891883134842,
                -0.18484792113304138,
                0.038182660937309265,
                -0.23122672736644745,
                0.16950978338718414,
                -0.01178118959069252,
                -0.054067462682724,
                0.13944153487682343,
                -0.024914858862757683,
                -0.18150627613067627,
                0.04062721133232117,
                0.026349829509854317,
                0.0194423645734787,
                -0.008206628262996674,
                -0.03591270372271538,
                -0.11574018001556396,
                -0.048569660633802414,
                0.018459415063261986,
                0.1421370506286621,
                -0.07514828443527222,
                0.1269405335187912,
                -0.007683567702770233,
                0.08789519965648651,
                0.025213439017534256,
                -0.04173114523291588,
                -0.06362224370241165,
                -0.05318639054894447,
                0.07114610075950623,
                -0.03931603580713272,
                -0.022156519815325737,
                -0.024454805999994278,
                0.03163629397749901,
                0.04905793070793152,
                0.03008018061518669,
                -0.004457428120076656,
                0.04816974326968193,
                -0.06678789108991623,
                0.02991863712668419,
                0.07913863658905029,
                0.05594171956181526,
                0.046729058027267456,
                0.05120689794421196,
                0.015330499969422817,
                -0.03624369949102402,
                -0.045613572001457214,
                0.10100873559713364,
                -0.10026523470878601,
                -0.06610238552093506,
                0.26291465759277344,
                0.014799178577959538,
                0.08772294223308563,
                -0.026447711512446404,
                -0.0840315893292427,
                -0.0029714733827859163,
                0.019354678690433502,
                -0.1077074334025383,
                0.12301833927631378,
                -0.013538943603634834,
                -0.12183400243520737,
                0.07088633626699448,
                -0.027632972225546837,
                -0.07179705798625946,
                -0.07004940509796143,
                0.129571795463562,
                0.09947911649942398,
                -0.030144747346639633,
                -0.03537510335445404,
                0.1688298135995865,
                0.12313564121723175,
                -0.022084731608629227,
                -0.04623301327228546,
                0.1705826222896576,
                0.027832768857479095,
                -0.04025964066386223,
                -0.03732949495315552,
                -0.021855169907212257,
                0.052473537623882294,
                -0.13112929463386536,
                0.10489372909069061,
                0.15411512553691864,
                -0.04081684350967407,
                -0.06620330363512039,
                0.08606009185314178,
                0.12718775868415833,
                -0.010711166076362133,
                0.09948693960905075,
                -0.04854949936270714,
                0.07072808593511581,
                0.01989109255373478,
                0.09771521389484406,
                0.0006692950846627355,
                -0.04400482028722763,
                0.21446816623210907,
                -0.12527641654014587,
                0.10552973300218582,
                0.18159353733062744,
                0.2887561321258545,
                -0.09108927100896835,
                -0.02332543581724167,
                0.057947877794504166,
                0.11187447607517242,
                -0.03958302363753319,
                -0.09899954497814178,
                0.3278596103191376,
                -0.11374370008707047,
                -0.04843081533908844,
                0.2295960783958435,
                0.07579522579908371,
                0.06720491498708725,
                0.004977414850145578,
                -0.08673232793807983,
                0.026285478845238686,
                0.0795239731669426,
                -0.16015343368053436,
                0.13594985008239746,
                0.12141227722167969,
                -0.029751935973763466,
                -0.07527545094490051,
                -0.07238907366991043,
                0.15374533832073212,
                -0.12382354587316513,
                -0.12160129100084305,
                0.09710390865802765,
                0.02904495969414711,
                -0.0010755440453067422,
                -0.03922438248991966,
                -0.016640113666653633,
                -0.09327302873134613,
                -0.044181544333696365
            ],
            [
                0.016397956758737564,
                -0.020921792834997177,
                0.06509680300951004,
                -0.07274609059095383,
                -0.006841327529400587,
                0.05422158166766167,
                0.08610137552022934,
                0.08344752341508865,
                0.04792569577693939,
                -0.05131497606635094,
                -0.06489887833595276,
                -0.037255026400089264,
                -0.13892561197280884,
                -0.0917837992310524,
                -0.05059884488582611,
                0.23625969886779785,
                -0.00040050779352895916,
                0.055597178637981415,
                -0.16894273459911346,
                -0.028633294627070427,
                -0.07266613841056824,
                0.024009356275200844,
                -0.011555277742445469,
                0.04402434825897217,
                0.01875566691160202,
                -0.043560322374105453,
                0.07003805786371231,
                -0.038473159074783325,
                0.008424133993685246,
                0.011044362559914589,
                -0.03308779001235962,
                0.08522606641054153,
                -0.08009365946054459,
                -0.05130907893180847,
                0.0979762002825737,
                -0.04516717046499252,
                -0.06656514108181,
                -0.0423385426402092,
                -0.09968584030866623,
                -0.12985794246196747,
                0.04126990586519241,
                -0.0006844844319857657,
                0.014640203677117825,
                0.11295881122350693,
                -0.16031774878501892,
                0.10306289792060852,
                -0.03554477170109749,
                -0.04100421071052551,
                -0.030437791720032692,
                0.047807566821575165,
                -0.042683400213718414,
                -0.11295640468597412,
                -0.06620390713214874,
                -0.01292832475155592,
                -0.09146741032600403,
                0.000723871577065438,
                -0.007380384020507336,
                0.07134179025888443,
                0.08982300758361816,
                0.12674763798713684,
                -0.11814490705728531,
                -0.08388743549585342,
                0.08634688705205917,
                0.2899998426437378,
                -0.07253307104110718,
                0.02910900115966797,
                0.15994912385940552,
                -0.02751220390200615,
                -0.09811068326234818,
                -0.06534454226493835,
                0.0336751863360405,
                -0.15252767503261566,
                0.02885790355503559,
                0.26527640223503113,
                0.019591016694903374,
                -0.06367088854312897,
                -0.13182230293750763,
                -0.07078219205141068,
                0.0521458275616169,
                -0.05358724668622017,
                -0.023181091994047165,
                -0.019135821610689163,
                0.12100283801555634,
                0.006868856027722359,
                0.027715420350432396,
                0.024867061525583267,
                -0.09716340899467468,
                -0.06407155841588974,
                -0.045949988067150116,
                -0.016739903017878532,
                -0.05779041349887848,
                0.00819599349051714,
                -0.08671735972166061,
                0.06250842660665512,
                -0.05155618488788605,
                -0.07433400303125381,
                -0.023798981681466103,
                0.010227672755718231,
                0.0028598259668797255,
                0.02059754729270935,
                -0.03692562133073807,
                0.09472302347421646,
                -0.054532308131456375,
                0.031940408051013947,
                -0.05749761313199997,
                -0.04267997667193413,
                0.008208905346691608,
                -0.04617112874984741,
                -0.11820780485868454,
                0.01522775087505579,
                -0.012580799870193005,
                -0.03727550432085991,
                0.06689902395009995,
                -0.019461465999484062,
                -0.004410666413605213,
                0.04985550418496132,
                -0.06449919939041138,
                -0.10507873445749283,
                -0.07069756835699081,
                -0.12141676992177963,
                0.011907118372619152,
                -0.025025714188814163,
                0.1707974076271057,
                -0.10111255943775177,
                0.050075069069862366,
                -0.04835435003042221,
                -0.07878474146127701,
                4.8785441322252154e-05,
                -0.013209335505962372,
                -0.05679048225283623,
                -0.0007775805424898863,
                -0.05545173957943916,
                -0.086153544485569,
                -0.06848255544900894,
                -0.051401372998952866,
                0.09768496453762054,
                0.04075021296739578,
                0.038032036274671555,
                0.11344686150550842,
                0.04199982061982155,
                -0.007779454812407494,
                -0.10996311902999878,
                0.13808707892894745,
                -0.056016504764556885,
                0.09088484942913055,
                -0.050708942115306854,
                0.03334658965468407,
                0.0764831155538559,
                -0.07341165840625763,
                -0.09711537510156631
            ],
            [
                -0.08271089196205139,
                0.13572974503040314,
                0.05670884624123573,
                0.06587262451648712,
                0.175236314535141,
                -0.0643065795302391,
                0.2201593816280365,
                -0.1309298723936081,
                -0.23017247021198273,
                -0.053901948034763336,
                -0.018533051013946533,
                -0.10595452040433884,
                -0.02116832137107849,
                -0.091608427464962,
                0.023889899253845215,
                -0.007412948179990053,
                -0.11952601373195648,
                0.07780548930168152,
                0.023900305852293968,
                0.11755269020795822,
                0.15478463470935822,
                -0.04178774729371071,
                0.1129259318113327,
                -0.016893163323402405,
                -0.06988280266523361,
                0.0035347817465662956,
                0.021071046590805054,
                -0.008196600712835789,
                -0.05007745325565338,
                -0.07337009906768799,
                -0.08482231944799423,
                -0.09443821012973785,
                -0.04565593972802162,
                -0.023532813414931297,
                -0.011483408510684967,
                0.05907595157623291,
                -0.05158393830060959,
                -0.08430396765470505,
                0.0019313758239150047,
                0.08715936541557312,
                -0.0649329274892807,
                -0.00946221873164177,
                -0.055931925773620605,
                0.01744283176958561,
                -0.06426134705543518,
                0.02867555059492588,
                0.06461924314498901,
                0.07786603271961212,
                0.06254284083843231,
                0.08761950582265854,
                0.0508025586605072,
                -0.02394389919936657,
                -0.13849103450775146,
                -0.04242457449436188,
                0.018114013597369194,
                -0.057642076164484024,
                -0.10099676996469498,
                0.09488881379365921,
                0.1082669049501419,
                0.15940888226032257,
                0.020610343664884567,
                -0.11220311373472214,
                -0.01052155438810587,
                0.010881064459681511,
                0.020003480836749077,
                -0.09284073114395142,
                -0.01402545440942049,
                -0.008097751066088676,
                -0.004444480407983065,
                0.01907362788915634,
                0.09263140708208084,
                0.011999072507023811,
                -0.006525579374283552,
                -0.032562047243118286,
                -0.07130660116672516,
                -0.029336031526327133,
                -0.10391782969236374,
                0.015935251489281654,
                0.03755857050418854,
                0.05305935814976692,
                -0.051380135118961334,
                -0.050265345722436905,
                -0.027043864130973816,
                0.0460035614669323,
                0.007302878424525261,
                0.012612801045179367,
                -0.05306798592209816,
                0.023661835119128227,
                0.0519128292798996,
                -0.05973182991147041,
                -0.009374414570629597,
                -0.012676093727350235,
                -0.009896885603666306,
                0.003458676626905799,
                0.09134141355752945,
                -0.04128403961658478,
                -0.09306149929761887,
                0.026588667184114456,
                -0.041603922843933105,
                0.031784359365701675,
                -0.09971553087234497,
                -0.043254196643829346,
                0.14946876466274261,
                -0.060102373361587524,
                -0.06044452637434006,
                -0.06557485461235046,
                -0.10119461268186569,
                -0.01083466038107872,
                -0.10075920820236206,
                0.09515415132045746,
                -0.019970936700701714,
                0.047157421708106995,
                -0.1073051318526268,
                -0.08397287130355835,
                -0.12794969975948334,
                0.22690823674201965,
                -0.07294405996799469,
                0.038884520530700684,
                0.035440150648355484,
                -0.05769156664609909,
                -0.059344589710235596,
                -0.015295068733394146,
                0.07894062250852585,
                -0.044436097145080566,
                -0.07297244668006897,
                0.10818760842084885,
                0.07587210088968277,
                0.07632838189601898,
                -0.10943678766489029,
                -0.11328735947608948,
                0.03806454315781593,
                -0.049300599843263626,
                -0.026694051921367645,
                -0.010639005340635777,
                0.02060043066740036,
                -0.10395698249340057,
                -0.05568184331059456,
                0.07872692495584488,
                0.10262211412191391,
                0.02983541414141655,
                -0.0721922442317009,
                -0.043457068502902985,
                0.03913610056042671,
                -0.014760429970920086,
                -0.046198099851608276,
                0.0564812533557415,
                -0.06304419785737991,
                0.09618591517210007,
                -0.05280017852783203,
                -0.04714592918753624
            ],
            [
                -0.00040688092121854424,
                -0.047850195318460464,
                0.017944350838661194,
                0.1719386726617813,
                0.0006204353994689882,
                0.05967443436384201,
                -0.03187306970357895,
                0.003197960089892149,
                -0.07730691134929657,
                0.09466459602117538,
                -0.09160525351762772,
                -0.04372511804103851,
                -0.10745078325271606,
                0.07128488272428513,
                0.03478121757507324,
                -0.010879342444241047,
                -0.05014348775148392,
                -0.06895696371793747,
                0.016557451337575912,
                -0.13824787735939026,
                -0.08756474405527115,
                0.13808022439479828,
                0.006994469556957483,
                0.0027510193176567554,
                -0.08452275395393372,
                0.01216611173003912,
                0.030547553673386574,
                -0.11462131887674332,
                0.027545643970370293,
                0.026997990906238556,
                0.02508358471095562,
                0.011848140507936478,
                -0.10296734422445297,
                -0.027900954708456993,
                0.02451786957681179,
                -0.14743797481060028,
                -0.07421571016311646,
                -0.09189079701900482,
                0.03331694006919861,
                0.093629390001297,
                -0.08251707255840302,
                -0.04106137156486511,
                0.016357626765966415,
                0.016351187601685524,
                0.11494180560112,
                -0.08131100237369537,
                -0.05027056485414505,
                0.1701010763645172,
                -0.10511711984872818,
                -0.08837208151817322,
                0.11450429260730743,
                -0.13015499711036682,
                -0.07338845729827881,
                0.21449153125286102,
                -0.044592175632715225,
                0.05546241253614426,
                -0.0834229439496994,
                0.055950965732336044,
                0.11101120710372925,
                -0.14126837253570557,
                -0.02684243768453598,
                0.3902629017829895,
                0.010677998885512352,
                -0.04272056370973587,
                -0.12017060816287994,
                -0.021526332944631577,
                -0.07019620388746262,
                -0.1127120777964592,
                -0.04893714562058449,
                -0.04676678031682968,
                0.04266686737537384,
                0.1475265473127365,
                0.043876610696315765,
                0.08450747281312943,
                0.17591042816638947,
                -0.06429653614759445,
                0.09935916215181351,
                0.1049942597746849,
                -0.009608241729438305,
                -0.10253439098596573,
                -0.024778395891189575,
                -0.07036720961332321,
                0.03715525567531586,
                -0.09880686551332474,
                0.03417019546031952,
                0.08002062886953354,
                -0.025003215298056602,
                0.07247656583786011,
                0.09009990841150284,
                -0.034866318106651306,
                -0.04013469070196152,
                0.06219025328755379,
                0.06780446320772171,
                0.07208295911550522,
                0.014212646521627903,
                0.04839019104838371,
                -0.10002876073122025,
                -0.0013321996666491032,
                -0.10081018507480621,
                0.044738538563251495,
                -0.04463660717010498,
                0.1449987292289734,
                -0.05024911090731621,
                -0.09647797048091888,
                -0.05203840136528015,
                -0.0011728734243661165,
                -0.05815327167510986,
                -0.03593616560101509,
                0.04856911674141884,
                0.18841570615768433,
                0.002142307348549366,
                0.04936467111110687,
                -0.10811477899551392,
                0.08975442498922348,
                -0.022972188889980316,
                -0.054481856524944305,
                -0.07221826910972595,
                0.07662327587604523,
                0.10892501473426819,
                -0.030262213200330734,
                -0.08043237030506134,
                -0.019050443544983864,
                0.08991583436727524,
                0.05741732195019722,
                -0.029683582484722137,
                0.0896260216832161,
                -0.010464777238667011,
                -0.008155261166393757,
                -0.029804008081555367,
                -0.03409884497523308,
                0.08483147621154785,
                -0.14149144291877747,
                0.12527762353420258,
                -0.0315433032810688,
                0.040417786687612534,
                0.09004732221364975,
                -0.002172469161450863,
                -0.018461931496858597,
                0.004430628847330809,
                0.0026003210805356503,
                0.1094348356127739,
                0.08257842808961868,
                -0.07918150722980499,
                0.10287738591432571,
                -0.2057504951953888,
                0.050153378397226334,
                0.11045766621828079,
                -0.14388281106948853,
                -0.11043859273195267,
                0.26709839701652527
            ],
            [
                0.060952480882406235,
                -0.06996996700763702,
                -0.07241948693990707,
                -0.08074725419282913,
                0.12057190388441086,
                -0.03664315864443779,
                0.20473259687423706,
                0.2400800883769989,
                -0.06051207333803177,
                -0.06512671709060669,
                0.007579584140330553,
                0.06611476093530655,
                0.07302041351795197,
                -0.07582428306341171,
                0.05016924813389778,
                0.09017549455165863,
                -0.02883303537964821,
                -0.07328878343105316,
                -0.01885513961315155,
                0.06905565410852432,
                0.06677278876304626,
                -0.049689166247844696,
                -0.07762737572193146,
                0.12134597450494766,
                0.020109092816710472,
                -0.08247964084148407,
                -0.005230738781392574,
                -0.09253567457199097,
                0.08389260619878769,
                -0.07519546151161194,
                -0.09840688109397888,
                -0.06959503144025803,
                0.07423966377973557,
                -0.04288506135344505,
                -0.02309536375105381,
                0.02961072139441967,
                0.06910097599029541,
                0.07338014245033264,
                -0.03978477418422699,
                -0.09574848413467407,
                0.1041952520608902,
                0.10491463541984558,
                -0.12468813359737396,
                -0.07991193979978561,
                0.0829048678278923,
                0.11929438263177872,
                -0.05679931864142418,
                0.07286404818296432,
                0.0013499032938852906,
                -0.07098887860774994,
                -0.09148456901311874,
                0.07511624693870544,
                -0.08431889861822128,
                -0.03667362034320831,
                0.05657560005784035,
                0.07213176041841507,
                0.07933137565851212,
                0.03981470689177513,
                0.02778557315468788,
                0.03852581977844238,
                0.06173071265220642,
                -0.1057516559958458,
                -0.07087909430265427,
                0.009445617906749249,
                0.06964575499296188,
                -0.028602387756109238,
                0.04335668683052063,
                -0.08544321358203888,
                -0.037981778383255005,
                -0.032560594379901886,
                -0.027546413242816925,
                -0.08817459642887115,
                -0.021616682410240173,
                0.04778660461306572,
                0.057230394333601,
                0.0024946758057922125,
                0.0496726855635643,
                0.01248234137892723,
                0.13382910192012787,
                -0.014863265678286552,
                0.03598124533891678,
                -0.026437079533934593,
                0.07935813814401627,
                0.01433276291936636,
                -0.11033844202756882,
                -0.05056484416127205,
                0.07684730738401413,
                0.041929058730602264,
                0.09289595484733582,
                0.1471657007932663,
                -0.207845076918602,
                -0.08006339520215988,
                0.10049252957105637,
                0.018235675990581512,
                0.008913883939385414,
                0.1139630675315857,
                0.06177791953086853,
                0.008922787383198738,
                -0.10562097281217575,
                0.04217909649014473,
                -0.08354149013757706,
                -0.029476910829544067,
                0.2123960256576538,
                0.005024888552725315,
                -0.027569159865379333,
                0.0012672700686380267,
                -0.06067650392651558,
                0.039339203387498856,
                0.027389921247959137,
                0.005558321718126535,
                0.010892445221543312,
                -0.006717462092638016,
                -0.009414264932274818,
                0.07610281556844711,
                -0.08187896758317947,
                -0.03508727252483368,
                0.05921159312129021,
                0.019678635522723198,
                0.020993715152144432,
                0.016825025901198387,
                -0.10878001898527145,
                -0.027577323839068413,
                -0.02809244580566883,
                -0.07597656548023224,
                0.026021679863333702,
                -0.02922079712152481,
                0.024661419913172722,
                -0.040215011686086655,
                -0.07495074719190598,
                0.03096257522702217,
                0.01282996591180563,
                -0.038814857602119446,
                0.08701203763484955,
                0.10115276277065277,
                0.055164746940135956,
                -0.027631880715489388,
                0.06188720092177391,
                0.020148970186710358,
                -0.029304390773177147,
                0.08501961082220078,
                0.08033294975757599,
                0.03237072378396988,
                0.02543179877102375,
                0.052185624837875366,
                0.05533739551901817,
                -0.014773176051676273,
                -0.013794777914881706,
                -0.06662874668836594,
                0.04791715368628502,
                0.014416640624403954
            ],
            [
                0.04770147055387497,
                0.0511573851108551,
                0.13918204605579376,
                -0.10522691905498505,
                0.11112483590841293,
                -0.0288948155939579,
                0.06523359566926956,
                -0.021621696650981903,
                -0.014461716637015343,
                -0.02121821977198124,
                0.09954097867012024,
                0.014610917307436466,
                0.09883326292037964,
                0.014248625375330448,
                0.02654813602566719,
                -0.02738822251558304,
                0.04740334674715996,
                0.04065946862101555,
                -0.05347098410129547,
                -0.07938920706510544,
                0.0012672990560531616,
                -0.09017977118492126,
                -0.047304801642894745,
                0.13070645928382874,
                0.04589761421084404,
                -0.0882425457239151,
                0.06316134333610535,
                -0.05475180968642235,
                -0.010392648167908192,
                -0.04669899120926857,
                0.03163939714431763,
                0.14808066189289093,
                -0.09380073845386505,
                -0.13703800737857819,
                0.02475898712873459,
                -0.09282416850328445,
                0.13182823359966278,
                -0.0037767142057418823,
                0.24267598986625671,
                -0.15072797238826752,
                -0.052659351378679276,
                -0.21361267566680908,
                0.03483245149254799,
                0.08719290047883987,
                -0.10845112800598145,
                -0.04163503646850586,
                -0.11421678215265274,
                0.02000371366739273,
                -0.14629974961280823,
                0.06029307469725609,
                0.08662604540586472,
                0.0799642875790596,
                0.0589681938290596,
                -0.018074536696076393,
                0.13239942491054535,
                -0.039516597986221313,
                0.076615110039711,
                -0.07283688336610794,
                0.06946910172700882,
                -0.08595451712608337,
                -0.026972696185112,
                0.07192260771989822,
                0.033365316689014435,
                0.00017710593238007277,
                0.01664016768336296,
                -0.013964725658297539,
                0.051941078156232834,
                -0.05667446553707123,
                0.09258993715047836,
                0.05238495394587517,
                -0.05501488968729973,
                0.007200933061540127,
                -0.026809658855199814,
                -0.07795559614896774,
                0.06664832681417465,
                0.02957666851580143,
                -0.08560312539339066,
                0.08093547821044922,
                0.09502873569726944,
                0.10938757658004761,
                0.10053838789463043,
                -0.0803794413805008,
                -0.05831480771303177,
                -0.044580232352018356,
                0.02219744771718979,
                -0.046146705746650696,
                0.03736013174057007,
                0.05709241330623627,
                0.029912130907177925,
                0.10196613520383835,
                0.08854757994413376,
                0.13941098749637604,
                0.0826508104801178,
                -0.07097181677818298,
                -0.005930440966039896,
                -0.007658755406737328,
                0.03616112098097801,
                0.10334877669811249,
                0.11346597224473953,
                0.057166315615177155,
                -0.12189150601625443,
                0.001036379486322403,
                0.09425940364599228,
                0.04644361138343811,
                -0.09907153993844986,
                0.020232001319527626,
                -0.024400515481829643,
                -0.05417296290397644,
                -0.027683541178703308,
                0.04086650162935257,
                0.07142969965934753,
                0.10548768937587738,
                -2.2324835299514234e-05,
                -0.08312685042619705,
                -0.009916282258927822,
                -0.08742991089820862,
                -0.12910357117652893,
                0.08886932581663132,
                -0.0604492649435997,
                0.10422124713659286,
                -0.08344706892967224,
                -0.04709123447537422,
                -0.0062360684387385845,
                -0.03346895053982735,
                -0.07775161415338516,
                -0.009591078385710716,
                0.09730316698551178,
                0.19313837587833405,
                -0.06979654729366302,
                -0.13730451464653015,
                -0.028260033577680588,
                -0.024422524496912956,
                -0.14062809944152832,
                0.047900762408971786,
                0.3343921899795532,
                -0.2177465856075287,
                0.08341290056705475,
                -0.20811066031455994,
                0.06726532429456711,
                0.12638302147388458,
                0.00028826811467297375,
                0.06766366958618164,
                0.03116055391728878,
                0.14848488569259644,
                -0.10234057903289795,
                0.009400042705237865,
                0.0324399396777153,
                -0.06076642498373985,
                -0.14755365252494812,
                0.0653286874294281
            ],
            [
                0.036418668925762177,
                0.044227782636880875,
                0.05755907669663429,
                0.030537549406290054,
                0.020988842472434044,
                -0.006712485570460558,
                0.04679441452026367,
                -0.10034838318824768,
                0.0051328269764781,
                -0.050888705998659134,
                0.07182317227125168,
                0.08679702877998352,
                -0.03715340793132782,
                -0.02975580468773842,
                -0.025801101699471474,
                0.022421276196837425,
                -0.06654042750597,
                0.03730173408985138,
                -0.049507368355989456,
                -0.08596328645944595,
                0.06834609061479568,
                0.04980768263339996,
                0.04917604476213455,
                0.07345171272754669,
                0.05419177561998367,
                0.05322607606649399,
                -0.07572239637374878,
                -0.09526761621236801,
                -0.080560103058815,
                -0.09770912677049637,
                -0.05806616321206093,
                -0.05930788069963455,
                0.10913512855768204,
                -0.12120866030454636,
                0.12381388992071152,
                0.181697815656662,
                0.08455967158079147,
                0.0886361300945282,
                -0.08744816482067108,
                0.048411861062049866,
                -0.1374823898077011,
                -6.34309762972407e-05,
                0.0793696716427803,
                0.15938997268676758,
                -0.10053190588951111,
                0.03380010649561882,
                -0.07667052000761032,
                0.045810431241989136,
                -0.06776530295610428,
                -0.06129874661564827,
                0.10603351891040802,
                0.05576871708035469,
                0.07108382135629654,
                0.09592518210411072,
                -0.06964289397001266,
                0.004991254303604364,
                0.03295798972249031,
                -0.047140058130025864,
                0.08569758385419846,
                0.04481692239642143,
                0.06947033852338791,
                0.08069085329771042,
                0.06468715518712997,
                0.06086735799908638,
                0.06614258885383606,
                0.029235200956463814,
                0.11430796980857849,
                -0.04680348560214043,
                -0.04976234212517738,
                -0.03148001432418823,
                -0.057826247066259384,
                0.008807235397398472,
                0.07552995532751083,
                0.0814291387796402,
                0.000937205390073359,
                -0.21967364847660065,
                -0.016875501722097397,
                0.040345821529626846,
                -0.2569965422153473,
                -0.09578974545001984,
                0.022310419008135796,
                -0.15742750465869904,
                0.07887706160545349,
                0.03227359056472778,
                0.021005377173423767,
                0.017284449189901352,
                -0.035593483597040176,
                0.03427526354789734,
                0.14882062375545502,
                0.10092118382453918,
                0.16310063004493713,
                0.13127969205379486,
                -0.06789770722389221,
                -0.07611612230539322,
                0.019308241084218025,
                0.08477549999952316,
                -0.0008169490611180663,
                0.04018525779247284,
                0.09348876029253006,
                -0.0550401471555233,
                -0.04276619479060173,
                0.12700572609901428,
                -0.014020709320902824,
                -0.010580853559076786,
                -0.003956304397433996,
                0.04922055825591087,
                -0.05450598895549774,
                -0.11622054129838943,
                0.06427863240242004,
                -0.07994040101766586,
                0.08155255019664764,
                0.023135637864470482,
                0.10370035469532013,
                0.03995826840400696,
                0.09672640264034271,
                -0.03367640823125839,
                -0.07653380185365677,
                -0.055212441831827164,
                0.07064223289489746,
                0.08091622591018677,
                -0.006057810503989458,
                0.09691067039966583,
                -0.0637851133942604,
                -0.06847060471773148,
                0.0808105617761612,
                0.021119778975844383,
                -0.013589050620794296,
                -0.05307187885046005,
                -0.03823395445942879,
                -0.1861688196659088,
                -0.06794831156730652,
                0.06937192380428314,
                0.06411150097846985,
                0.004397734068334103,
                0.03516542539000511,
                0.021183084696531296,
                -0.0754341408610344,
                0.07867331802845001,
                -0.06407122313976288,
                0.07961879670619965,
                0.09272095561027527,
                -0.08095606416463852,
                0.03588182479143143,
                0.10516160726547241,
                0.032425735145807266,
                -0.008523617871105671,
                0.01728942058980465,
                0.1108538806438446,
                0.10018482059240341,
                0.09337654709815979
            ],
            [
                0.04670138284564018,
                -0.0911647155880928,
                -0.06546864658594131,
                -0.07057632505893707,
                -0.08543715626001358,
                -0.06273342669010162,
                0.02471313253045082,
                0.038388442248106,
                -0.02897861786186695,
                -0.061391640454530716,
                -0.05637814477086067,
                0.1426696926355362,
                -0.0302501879632473,
                -0.12876388430595398,
                -0.05429287999868393,
                0.07040347903966904,
                0.019097119569778442,
                -0.029955418780446053,
                -0.0443657785654068,
                0.027587810531258583,
                0.003977939486503601,
                0.0003188746050000191,
                -0.05384182929992676,
                -0.0383993424475193,
                -0.13062012195587158,
                0.03032475896179676,
                -0.10593099147081375,
                -0.11809398978948593,
                0.08387596905231476,
                0.19042736291885376,
                0.001464972272515297,
                -0.0059649525210261345,
                0.08857394009828568,
                -0.07454267889261246,
                0.0277672428637743,
                0.11375997960567474,
                0.0439179465174675,
                -0.16407766938209534,
                -0.07887263596057892,
                -0.05341736227273941,
                0.058249302208423615,
                -0.022354112938046455,
                0.04818413034081459,
                -0.1140284538269043,
                -0.021905096247792244,
                0.06949405372142792,
                0.07443007826805115,
                0.13725662231445313,
                0.09665849059820175,
                -0.0810275748372078,
                0.04175815358757973,
                -0.07860972732305527,
                -0.0003812112845480442,
                -0.0865238755941391,
                -0.01024511270225048,
                0.03337179124355316,
                0.004162505269050598,
                0.08302833884954453,
                -0.055626031011343,
                -0.08848893642425537,
                -0.07525395601987839,
                -0.024366579949855804,
                -0.04675031453371048,
                0.0729837492108345,
                -0.031547609716653824,
                0.00026337691815569997,
                0.08618621528148651,
                -0.10371880233287811,
                -0.011584728956222534,
                0.08132443577051163,
                -0.06508535891771317,
                0.023174868896603584,
                -0.08751619607210159,
                0.06957390904426575,
                0.041822399944067,
                -0.08243938535451889,
                -0.04590121656656265,
                0.10735820978879929,
                0.15322278439998627,
                -0.04007624089717865,
                -0.053197167813777924,
                -0.07357043772935867,
                -0.039893362671136856,
                -0.08475282788276672,
                0.09877932816743851,
                0.0573849231004715,
                -0.05989084392786026,
                0.045068271458148956,
                -0.0015818082028999925,
                0.07675515115261078,
                0.07561838626861572,
                -0.05454307794570923,
                -0.04971801117062569,
                -0.13811202347278595,
                0.07051923125982285,
                -0.034349121153354645,
                0.08943711221218109,
                -0.052535057067871094,
                -0.04471747949719429,
                -0.08983001857995987,
                0.0774431824684143,
                0.03430258482694626,
                -0.030253149569034576,
                0.020811036229133606,
                0.030299151316285133,
                -0.012834414839744568,
                -0.11065607517957687,
                0.06272047013044357,
                -0.03638819605112076,
                -0.16244812309741974,
                -0.056842751801013947,
                -0.09010950475931168,
                0.078746497631073,
                0.04216540604829788,
                -0.058072514832019806,
                -0.09566804021596909,
                -0.0735311508178711,
                -0.04146723076701164,
                0.03086305595934391,
                0.07132292538881302,
                -0.13497479259967804,
                -0.06378505378961563,
                -0.0027656422462314367,
                -0.04482975974678993,
                0.14398106932640076,
                0.11571616679430008,
                0.20501558482646942,
                0.1323978751897812,
                -0.00203431723639369,
                -0.02018021233379841,
                0.03325462341308594,
                -0.059204503893852234,
                0.08839495480060577,
                0.01186665240675211,
                0.09871622174978256,
                -0.08157018572092056,
                -0.05228394642472267,
                0.10569722950458527,
                0.09422014653682709,
                0.045127175748348236,
                0.0597342811524868,
                0.01867421343922615,
                0.11131186038255692,
                -0.05838771536946297,
                -0.012645047158002853,
                -0.06248747184872627,
                -0.04980502277612686,
                -0.04425331950187683,
                0.006474135909229517,
                -0.08750058710575104
            ]
        ]
    },
    "f1": {
        "bias": [
            0.013864577747881413,
            0.01815658248960972,
            -0.0027937081176787615,
            0.008156501688063145,
            0.02282669208943844,
            -0.002678136108443141,
            -0.003674016334116459,
            -0.0035939642693847418,
            0.020174048840999603,
            -0.003408801043406129,
            -0.005997381638735533,
            -0.00037133670412003994,
            0.0032956430222839117,
            -0.002547590062022209,
            -0.014230761677026749,
            0.022712301462888718,
            -0.003658729838207364,
            0.009952958673238754,
            -0.004346868488937616,
            0.02384345233440399,
            0.020073601976037025,
            0.008556515909731388,
            -0.001065881340764463,
            -0.005770811345428228,
            0.014243650250136852,
            -0.010753040201961994,
            -0.009253330528736115,
            0.021424533799290657,
            -0.005836251191794872,
            0.00630943663418293,
            0.0038531068712472916,
            -0.0026409660931676626,
            0.006877576466649771,
            0.0023092871997505426,
            -0.003482076106593013,
            -0.0002444847777951509,
            -0.015401383861899376,
            0.013392318971455097,
            -0.012221000157296658,
            0.014640028588473797,
            0.004797882866114378,
            0.013547691516578197,
            0.0,
            -0.0015605230582877994,
            -0.0010758147109299898,
            0.011124142445623875,
            0.010974043980240822,
            0.004136569332331419,
            0.0095317792147398,
            0.0017594926757737994,
            0.00624694162979722,
            -0.020828621461987495,
            -0.0006577323074452579,
            -0.004571069963276386,
            -0.00995691493153572,
            0.009456013329327106,
            -0.003952382132411003,
            0.011950905434787273,
            0.0065793972462415695,
            0.0009501884342171252,
            -0.0016513810260221362,
            -0.0023839862551540136,
            0.016361890360713005,
            0.0005430534947663546,
            -0.007130966056138277,
            -0.00322799663990736,
            0.002561962930485606,
